digraph Tree {
node [shape=box] ;
0 [label="X[7] <= 0.5\ngini = 0.5\nsamples = 37224\nvalue = [18476, 18748]"] ;
1 [label="X[8] <= 0.5\ngini = 0.497\nsamples = 32094\nvalue = [17218, 14876]"] ;
0 -> 1 [labeldistance=2.5, labelangle=45, headlabel="True"] ;
2 [label="X[6] <= 0.005\ngini = 0.483\nsamples = 21728\nvalue = [12875, 8853]"] ;
1 -> 2 ;
3 [label="X[9] <= 0.5\ngini = 0.488\nsamples = 20500\nvalue = [11810, 8690]"] ;
2 -> 3 ;
4 [label="X[2] <= 18.205\ngini = 0.465\nsamples = 11559\nvalue = [7302, 4257]"] ;
3 -> 4 ;
5 [label="X[65] <= 0.5\ngini = 0.485\nsamples = 6369\nvalue = [3735, 2634]"] ;
4 -> 5 ;
6 [label="gini = 0.456\nsamples = 2871\nvalue = [1859, 1012]"] ;
5 -> 6 ;
7 [label="gini = 0.497\nsamples = 3498\nvalue = [1876, 1622]"] ;
5 -> 7 ;
8 [label="X[10] <= 0.5\ngini = 0.43\nsamples = 5190\nvalue = [3567, 1623]"] ;
4 -> 8 ;
9 [label="gini = 0.395\nsamples = 2422\nvalue = [1766, 656]"] ;
8 -> 9 ;
10 [label="gini = 0.455\nsamples = 2768\nvalue = [1801, 967]"] ;
8 -> 10 ;
11 [label="X[2] <= 20.99\ngini = 0.5\nsamples = 8941\nvalue = [4508, 4433]"] ;
3 -> 11 ;
12 [label="X[65] <= 0.5\ngini = 0.498\nsamples = 6343\nvalue = [2961, 3382]"] ;
11 -> 12 ;
13 [label="gini = 0.497\nsamples = 1499\nvalue = [810, 689]"] ;
12 -> 13 ;
14 [label="gini = 0.494\nsamples = 4844\nvalue = [2151, 2693]"] ;
12 -> 14 ;
15 [label="X[2] <= 27.35\ngini = 0.482\nsamples = 2598\nvalue = [1547, 1051]"] ;
11 -> 15 ;
16 [label="gini = 0.489\nsamples = 1788\nvalue = [1025, 763]"] ;
15 -> 16 ;
17 [label="gini = 0.458\nsamples = 810\nvalue = [522, 288]"] ;
15 -> 17 ;
18 [label="X[65] <= 0.5\ngini = 0.23\nsamples = 1228\nvalue = [1065, 163]"] ;
2 -> 18 ;
19 [label="X[2] <= 35.915\ngini = 0.118\nsamples = 412\nvalue = [386, 26]"] ;
18 -> 19 ;
20 [label="X[5] <= 103.55\ngini = 0.114\nsamples = 411\nvalue = [386, 25]"] ;
19 -> 20 ;
21 [label="gini = 0.11\nsamples = 409\nvalue = [385, 24]"] ;
20 -> 21 ;
22 [label="gini = 0.5\nsamples = 2\nvalue = [1, 1]"] ;
20 -> 22 ;
23 [label="gini = 0.0\nsamples = 1\nvalue = [0, 1]"] ;
19 -> 23 ;
24 [label="X[4] <= 0.5\ngini = 0.279\nsamples = 816\nvalue = [679, 137]"] ;
18 -> 24 ;
25 [label="X[54] <= 0.5\ngini = 0.057\nsamples = 68\nvalue = [66, 2]"] ;
24 -> 25 ;
26 [label="gini = 0.0\nsamples = 60\nvalue = [60, 0]"] ;
25 -> 26 ;
27 [label="gini = 0.375\nsamples = 8\nvalue = [6, 2]"] ;
25 -> 27 ;
28 [label="X[2] <= 13.66\ngini = 0.296\nsamples = 748\nvalue = [613, 135]"] ;
24 -> 28 ;
29 [label="gini = 0.352\nsamples = 329\nvalue = [254, 75]"] ;
28 -> 29 ;
30 [label="gini = 0.245\nsamples = 419\nvalue = [359, 60]"] ;
28 -> 30 ;
31 [label="X[6] <= 0.005\ngini = 0.487\nsamples = 10366\nvalue = [4343, 6023]"] ;
1 -> 31 ;
32 [label="X[2] <= 17.235\ngini = 0.482\nsamples = 9977\nvalue = [4029, 5948]"] ;
31 -> 32 ;
33 [label="X[66] <= 0.5\ngini = 0.463\nsamples = 5772\nvalue = [2101, 3671]"] ;
32 -> 33 ;
34 [label="X[62] <= 0.5\ngini = 0.454\nsamples = 5156\nvalue = [1793, 3363]"] ;
33 -> 34 ;
35 [label="gini = 0.45\nsamples = 5021\nvalue = [1715, 3306]"] ;
34 -> 35 ;
36 [label="gini = 0.488\nsamples = 135\nvalue = [78, 57]"] ;
34 -> 36 ;
37 [label="X[62] <= 0.5\ngini = 0.5\nsamples = 616\nvalue = [308, 308]"] ;
33 -> 37 ;
38 [label="gini = 0.499\nsamples = 581\nvalue = [279, 302]"] ;
37 -> 38 ;
39 [label="gini = 0.284\nsamples = 35\nvalue = [29, 6]"] ;
37 -> 39 ;
40 [label="X[65] <= 0.5\ngini = 0.497\nsamples = 4205\nvalue = [1928, 2277]"] ;
32 -> 40 ;
41 [label="X[5] <= 45.15\ngini = 0.476\nsamples = 382\nvalue = [233, 149]"] ;
40 -> 41 ;
42 [label="gini = 0.498\nsamples = 205\nvalue = [109, 96]"] ;
41 -> 42 ;
43 [label="gini = 0.42\nsamples = 177\nvalue = [124, 53]"] ;
41 -> 43 ;
44 [label="X[2] <= 29.315\ngini = 0.494\nsamples = 3823\nvalue = [1695, 2128]"] ;
40 -> 44 ;
45 [label="gini = 0.49\nsamples = 3478\nvalue = [1495, 1983]"] ;
44 -> 45 ;
46 [label="gini = 0.487\nsamples = 345\nvalue = [200, 145]"] ;
44 -> 46 ;
47 [label="X[2] <= 0.19\ngini = 0.311\nsamples = 389\nvalue = [314, 75]"] ;
31 -> 47 ;
48 [label="gini = 0.0\nsamples = 3\nvalue = [0, 3]"] ;
47 -> 48 ;
49 [label="X[5] <= 47.0\ngini = 0.303\nsamples = 386\nvalue = [314, 72]"] ;
47 -> 49 ;
50 [label="X[65] <= 0.5\ngini = 0.36\nsamples = 183\nvalue = [140, 43]"] ;
49 -> 50 ;
51 [label="gini = 0.095\nsamples = 40\nvalue = [38, 2]"] ;
50 -> 51 ;
52 [label="gini = 0.409\nsamples = 143\nvalue = [102, 41]"] ;
50 -> 52 ;
53 [label="X[2] <= 16.75\ngini = 0.245\nsamples = 203\nvalue = [174, 29]"] ;
49 -> 53 ;
54 [label="gini = 0.33\nsamples = 91\nvalue = [72, 19]"] ;
53 -> 54 ;
55 [label="gini = 0.163\nsamples = 112\nvalue = [102, 10]"] ;
53 -> 55 ;
56 [label="X[6] <= 14.83\ngini = 0.37\nsamples = 5130\nvalue = [1258, 3872]"] ;
0 -> 56 [labeldistance=2.5, labelangle=-45, headlabel="False"] ;
57 [label="X[2] <= 16.435\ngini = 0.355\nsamples = 4987\nvalue = [1153, 3834]"] ;
56 -> 57 ;
58 [label="X[62] <= 0.5\ngini = 0.309\nsamples = 3271\nvalue = [625, 2646]"] ;
57 -> 58 ;
59 [label="X[5] <= 31.45\ngini = 0.299\nsamples = 3154\nvalue = [578, 2576]"] ;
58 -> 59 ;
60 [label="X[18] <= 0.5\ngini = 0.254\nsamples = 1726\nvalue = [258, 1468]"] ;
59 -> 60 ;
61 [label="gini = 0.228\nsamples = 1416\nvalue = [186, 1230]"] ;
60 -> 61 ;
62 [label="gini = 0.357\nsamples = 310\nvalue = [72, 238]"] ;
60 -> 62 ;
63 [label="X[5] <= 65.55\ngini = 0.348\nsamples = 1428\nvalue = [320, 1108]"] ;
59 -> 63 ;
64 [label="gini = 0.329\nsamples = 1140\nvalue = [237, 903]"] ;
63 -> 64 ;
65 [label="gini = 0.41\nsamples = 288\nvalue = [83, 205]"] ;
63 -> 65 ;
66 [label="X[5] <= 58.6\ngini = 0.481\nsamples = 117\nvalue = [47, 70]"] ;
58 -> 66 ;
67 [label="X[2] <= 6.335\ngini = 0.463\nsamples = 110\nvalue = [40, 70]"] ;
66 -> 67 ;
68 [label="gini = 0.385\nsamples = 50\nvalue = [13, 37]"] ;
67 -> 68 ;
69 [label="gini = 0.495\nsamples = 60\nvalue = [27, 33]"] ;
67 -> 69 ;
70 [label="gini = 0.0\nsamples = 7\nvalue = [7, 0]"] ;
66 -> 70 ;
71 [label="X[2] <= 23.705\ngini = 0.426\nsamples = 1716\nvalue = [528, 1188]"] ;
57 -> 71 ;
72 [label="X[5] <= 52.45\ngini = 0.402\nsamples = 1215\nvalue = [338, 877]"] ;
71 -> 72 ;
73 [label="X[1] <= 0.5\ngini = 0.37\nsamples = 816\nvalue = [200, 616]"] ;
72 -> 73 ;
74 [label="gini = 0.5\nsamples = 43\nvalue = [21, 22]"] ;
73 -> 74 ;
75 [label="gini = 0.356\nsamples = 773\nvalue = [179, 594]"] ;
73 -> 75 ;
76 [label="X[5] <= 52.65\ngini = 0.452\nsamples = 399\nvalue = [138, 261]"] ;
72 -> 76 ;
77 [label="gini = 0.0\nsamples = 3\nvalue = [3, 0]"] ;
76 -> 77 ;
78 [label="gini = 0.449\nsamples = 396\nvalue = [135, 261]"] ;
76 -> 78 ;
79 [label="X[5] <= 85.5\ngini = 0.471\nsamples = 501\nvalue = [190, 311]"] ;
71 -> 79 ;
80 [label="X[65] <= 0.5\ngini = 0.466\nsamples = 490\nvalue = [181, 309]"] ;
79 -> 80 ;
81 [label="gini = 0.219\nsamples = 8\nvalue = [7, 1]"] ;
80 -> 81 ;
82 [label="gini = 0.461\nsamples = 482\nvalue = [174, 308]"] ;
80 -> 82 ;
83 [label="X[5] <= 96.65\ngini = 0.298\nsamples = 11\nvalue = [9, 2]"] ;
79 -> 83 ;
84 [label="gini = 0.18\nsamples = 10\nvalue = [9, 1]"] ;
83 -> 84 ;
85 [label="gini = 0.0\nsamples = 1\nvalue = [0, 1]"] ;
83 -> 85 ;
86 [label="X[5] <= 0.55\ngini = 0.39\nsamples = 143\nvalue = [105, 38]"] ;
56 -> 86 ;
87 [label="gini = 0.0\nsamples = 3\nvalue = [0, 3]"] ;
86 -> 87 ;
88 [label="X[2] <= 5.485\ngini = 0.375\nsamples = 140\nvalue = [105, 35]"] ;
86 -> 88 ;
89 [label="X[2] <= 3.81\ngini = 0.492\nsamples = 32\nvalue = [18, 14]"] ;
88 -> 89 ;
90 [label="X[6] <= 14.992\ngini = 0.386\nsamples = 23\nvalue = [17, 6]"] ;
89 -> 90 ;
91 [label="gini = 0.153\nsamples = 12\nvalue = [11, 1]"] ;
90 -> 91 ;
92 [label="gini = 0.496\nsamples = 11\nvalue = [6, 5]"] ;
90 -> 92 ;
93 [label="X[53] <= 0.5\ngini = 0.198\nsamples = 9\nvalue = [1, 8]"] ;
89 -> 93 ;
94 [label="gini = 0.0\nsamples = 7\nvalue = [0, 7]"] ;
93 -> 94 ;
95 [label="gini = 0.5\nsamples = 2\nvalue = [1, 1]"] ;
93 -> 95 ;
96 [label="X[16] <= 0.5\ngini = 0.313\nsamples = 108\nvalue = [87, 21]"] ;
88 -> 96 ;
97 [label="X[5] <= 84.75\ngini = 0.268\nsamples = 94\nvalue = [79, 15]"] ;
96 -> 97 ;
98 [label="gini = 0.245\nsamples = 91\nvalue = [78, 13]"] ;
97 -> 98 ;
99 [label="gini = 0.444\nsamples = 3\nvalue = [1, 2]"] ;
97 -> 99 ;
100 [label="X[1] <= 10.5\ngini = 0.49\nsamples = 14\nvalue = [8, 6]"] ;
96 -> 100 ;
101 [label="gini = 0.397\nsamples = 11\nvalue = [8, 3]"] ;
100 -> 101 ;
102 [label="gini = 0.0\nsamples = 3\nvalue = [0, 3]"] ;
100 -> 102 ;
}